{
  "version": 1,
  "trainedAt": "2026-05-20T18:56:21.053305Z",
  "notes": "Trained by ml-training/train.py (multinomial logistic regression).",
  "classes": [
    "normal",
    "stress",
    "impact",
    "distress"
  ],
  "features": [
    "bpm",
    "bpmZ",
    "bpmStd",
    "gsr",
    "gsrDelta",
    "gsrSlope",
    "accelMag",
    "accelMagStd",
    "jerkPeak",
    "stillness"
  ],
  "scaler": {
    "mean": [
      98.68439948635437,
      1.0755977898335107,
      5.756603547983042,
      1856.0490965841734,
      -275.0113946879972,
      -16.302034703316696,
      11.182016679390594,
      1.3285261301164997,
      2.7430588570528607,
      0.5764831331147199
    ],
    "scale": [
      24.528989922254716,
      1.1294893467338434,
      2.707240426993522,
      872.164265598794,
      297.4012894003526,
      20.97603963343813,
      2.3939763280122275,
      1.119534829625767,
      2.6261357570870794,
      0.2572733398450338
    ]
  },
  "layers": [
    {
      "act": "softmax",
      "W": [
        [
          -1.111421103403445,
          -1.0854446999350102,
          -0.40600603001740343,
          1.2616799161492973,
          1.0694404392493346,
          0.7470535716842588,
          -0.38671123189339857,
          -0.7732285037405693,
          -0.8359934321852526,
          1.4962793549464113
        ],
        [
          0.05428502410379828,
          0.24748746321612541,
          0.061138976858083074,
          -0.8459537750946448,
          -0.8249039001178092,
          -0.45479904306685265,
          -0.6855388973810873,
          -1.4928834868012248,
          -1.6561404090166982,
          0.5002814566084239
        ],
        [
          -0.5562261506362453,
          -0.8024401061344731,
          -0.2299035099513335,
          0.8779084923424817,
          0.9037496076576392,
          0.899320359158323,
          0.6576978845224423,
          1.0405760360512164,
          1.1955314426738781,
          -1.4402658645850017
        ],
        [
          1.6133622299358914,
          1.6403973428533598,
          0.5747705631106522,
          -1.2936346333971318,
          -1.1482861467891647,
          -1.1915748877757308,
          0.414552244752043,
          1.2255359544905806,
          1.2966023985280735,
          -0.5562949469698357
        ]
      ],
      "b": [
        -0.901373975164581,
        0.6886007292006381,
        0.9866215449641121,
        -0.7738482990001694
      ]
    }
  ]
}